
\data\
ngram 1=2024

\1-grams:
-1.436462	</s>
-99	<s>
-3.361602	a
-3.139753	ai
-2.909304	an
-2.432183	anh
-3.662632	b
-2.621239	ba
-2.909304	ban
-3.294655	bao
-3.662632	bay
-3.294655	bi
-3.537693	bia
-3.838723	bin
-3.294655	binh
-3.440783	biên
-3.537693	biến
-2.935633	biết
-3.662632	biển
-3.294655	biểu
-3.537693	biện
-3.294655	biệt
-3.838723	bon
-3.838723	buông
-3.662632	buồn
-3.440783	buổi
-2.963662	bà
-2.935633	bài
-3.139753	bàn
-3.662632	bàng
-3.537693	bào
-3.662632	bày
-3.185511	bác
-3.838723	bách
-3.662632	bán
-3.838723	bánh
-3.060572	báo
-3.838723	bây
-3.838723	bã
-3.838723	bãi
-3.440783	bè
-3.09836	bé
-3.838723	béo
-3.537693	bê
-3.09836	bên
-3.838723	bì
-3.02581	bình
-3.838723	bí
-3.537693	bính
-3.662632	bò
-3.838723	bó
-3.838723	bón
-3.537693	bóng
-3.361602	bô
-3.838723	bông
-3.838723	bõm
-3.662632	bù
-3.838723	bùng
-3.838723	bú
-3.838723	búp
-3.838723	bút
-3.537693	băm
-3.838723	băng
-3.662632	bơm
-3.236663	bước
-3.838723	bướng
-3.537693	bạc
-3.838723	bạch
-2.634603	bạn
-3.838723	bạo
-2.993625	bản
-3.838723	bảng
-2.861	bảo
-2.909304	bảy
-3.294655	bất
-3.662632	bấy
-3.838723	bần
-3.361602	bầu
-3.662632	bẩm
-3.537693	bẩn
-3.537693	bật
-3.537693	bắc
-3.139753	bắt
-3.838723	bằm
-2.884481	bằng
-3.838723	bẻ
-3.838723	bến
-3.838723	bề
-3.662632	bền
-2.963662	bệnh
-2.741813	bị
-3.838723	bịt
-3.838723	bọ
-3.662632	bọn
-3.838723	bọt
-3.02581	bỏ
-3.185511	bố
-3.838723	bốc
-3.537693	bối
-2.884481	bốn
-3.537693	bồi
-3.662632	bổ
-3.662632	bỗng
-2.70839	bộ
-3.662632	bộc
-3.537693	bội
-3.662632	bột
-3.838723	bớ
-3.838723	bớt
-3.361602	bờ
-3.838723	bời
-3.294655	bởi
-3.440783	bụi
-3.440783	bụng
-3.838723	bức
-3.662632	bực
-3.139753	ca
-3.537693	cam
-3.537693	can
-3.838723	canh
-3.02581	cao
-3.662632	cau
-3.662632	cay
-3.294655	cha
-3.838723	chai
-3.838723	chanh
-3.361602	che
-3.236663	chi
-3.537693	chia
-3.440783	chim
-3.838723	chinh
-3.361602	chiếc
-3.838723	chiếm
-2.963662	chiến
-3.838723	chiếu
-3.294655	chiều
-2.25894	cho
-3.662632	choạng
-3.294655	chu
-3.838723	chua
-3.537693	chung
-3.662632	chuyên
-3.838723	chuyến
-3.361602	chuyển
-3.236663	chuyện
-3.440783	chuông
-3.236663	chuẩn
-3.440783	chuối
-3.662632	chài
-3.838723	chàm
-3.440783	chàng
-3.838723	chào
-3.662632	chán
-3.440783	cháu
-3.537693	châm
-3.294655	chân
-3.185511	châu
-3.838723	chém
-3.440783	chép
-3.838723	chênh
-3.236663	chí
-2.884481	chín
-2.608274	chính
-3.838723	chó
-3.838723	chóc
-3.838723	chóp
-3.838723	chôn
-3.838723	chõng
-3.537693	chùa
-3.185511	chú
-3.361602	chúa
-2.909304	chúng
-3.440783	chút
-3.838723	chăm
-3.838723	chĩa
-3.440783	chơi
-3.02581	chưa
-3.838723	chưng
-3.662632	chương
-3.838723	chướng
-3.838723	chạch
-3.662632	chạm
-3.838723	chạp
-3.361602	chạy
-3.838723	chả
-3.440783	chảy
-3.361602	chấm
-3.361602	chấp
-2.993625	chất
-3.537693	chập
-3.838723	chật
-3.294655	chắc
-3.060572	chẳng
-3.662632	chặt
-3.838723	chẽ
-3.09836	chế
-3.537693	chết
-3.838723	chề
-2.648391	chỉ
-3.09836	chị
-3.440783	chịu
-3.139753	chọn
-3.838723	chọt
-3.185511	chống
-3.294655	chồng
-3.440783	chỗ
-3.838723	chớ
-3.440783	chờ
-3.537693	chợ
-3.537693	chợt
-2.70839	chủ
-3.838723	chủng
-3.537693	chứ
-2.935633	chức
-3.361602	chứng
-3.838723	chửng
-3.440783	chữ
-3.185511	chữa
-3.537693	coi
-2.526969	con
-3.838723	cong
-3.838723	cu
-3.662632	cua
-3.662632	cung
-3.294655	cuối
-3.537693	cuốn
-2.909304	cuộc
-3.838723	càn
-3.838723	càng
-3.838723	cành
-3.02581	cá
-2.300904	các
-2.621239	cách
-2.692595	cái
-3.838723	cám
-3.236663	cán
-3.537693	cánh
-3.294655	cáo
-3.361602	cáp
-3.662632	cát
-3.662632	cáu
-3.662632	cân
-3.185511	câu
-2.909304	cây
-3.537693	cãi
-3.838723	cò
-2.662632	còn
-2.015902	có
-3.838723	cóc
-3.838723	cót
-2.741813	cô
-3.838723	côn
-2.571552	công
-3.838723	cõi
-2.817534	cùng
-3.838723	cúi
-3.440783	cúng
-3.662632	cút
-3.838723	căm
-3.537693	căn
-3.537693	căng
-3.838723	cũ
-2.55997	cũng
-2.759542	cơ
-3.662632	cơn
-3.838723	cưới
-3.537693	cười
-3.537693	cường
-3.662632	cưỡng
-3.838723	cạn
-3.185511	cạnh
-3.838723	cạo
-3.838723	cạp
-2.993625	cả
-3.294655	cải
-3.09836	cảm
-3.838723	cản
-3.537693	cảnh
-3.185511	cấp
-3.236663	cầm
-3.060572	cần
-3.060572	cầu
-3.838723	cẩu
-3.838723	cập
-2.935633	cậu
-3.361602	cắt
-3.838723	cọ
-3.838723	cọng
-3.838723	cọp
-3.838723	cọt
-3.838723	cỏ
-3.294655	cố
-3.838723	cốc
-3.838723	cốt
-3.662632	cổng
-3.440783	cộng
-3.662632	cớ
-3.537693	cờ
-3.838723	cởi
-3.838723	cỡ
-3.537693	cụ
-3.662632	cục
-3.838723	cụm
-3.838723	cụt
-3.236663	củ
-2.106329	của
-3.838723	củi
-3.838723	củng
-3.440783	cứ
-3.294655	cứu
-3.440783	cử
-3.294655	cửa
-3.440783	da
-3.440783	danh
-3.838723	di
-3.537693	dinh
-3.838723	diêm
-3.139753	diễn
-3.361602	diện
-3.838723	diệt
-2.861	do
-3.060572	doanh
-3.440783	dung
-3.440783	duy
-3.294655	duyên
-3.838723	duyệt
-3.139753	dài
-3.838723	dàn
-3.838723	dàng
-3.294655	dành
-3.662632	dày
-3.662632	dám
-2.70839	dân
-3.537693	dâu
-3.139753	dây
-3.838723	dãi
-3.838723	dép
-3.838723	dê
-3.662632	dòng
-3.662632	dõi
-3.294655	dù
-2.963662	dùng
-3.838723	dăm
-3.662632	dĩ
-3.838723	dũng
-3.838723	dơ
-3.537693	dư
-3.838723	dương
-3.294655	dưới
-3.361602	dưỡng
-3.440783	dạ
-3.361602	dạng
-3.440783	dạy
-3.838723	dả
-3.236663	dấu
-3.662632	dầm
-3.440783	dần
-3.537693	dầu
-3.838723	dẩu
-3.537693	dẫn
-3.838723	dật
-3.662632	dậy
-3.838723	dặn
-3.838723	dẹp
-3.294655	dễ
-3.440783	dị
-3.02581	dịch
-3.838723	dịu
-3.838723	dọc
-3.838723	dọn
-3.838723	dốc
-3.838723	dốt
-3.838723	dồi
-3.838723	dồn
-3.838723	dờ
-3.838723	dụ
-3.838723	dục
-2.935633	dụng
-3.838723	dứa
-3.662632	dứt
-3.537693	dừng
-3.139753	dự
-3.537693	dựa
-3.361602	dựng
-3.838723	e
-2.677355	em
-3.838723	eo
-3.838723	ga
-3.662632	gai
-3.09836	gam
-3.838723	gan
-3.440783	ghi
-3.838723	ghim
-3.838723	ghét
-3.838723	ghẻ
-3.838723	ghế
-2.963662	gia
-3.662632	giai
-3.09836	gian
-3.662632	giang
-2.993625	giao
-3.662632	già
-3.838723	giành
-3.662632	giàu
-3.02581	giá
-3.440783	giác
-3.537693	giám
-3.09836	giáo
-3.662632	giáp
-3.838723	giây
-3.838723	giã
-3.838723	giãn
-3.838723	giê
-3.838723	giêng
-3.838723	giò
-3.537693	gió
-3.838723	giùm
-3.440783	giúp
-3.838723	giường
-3.537693	giả
-2.963662	giải
-3.139753	giảm
-3.662632	giảng
-3.838723	giấc
-3.838723	giấu
-3.537693	giấy
-3.662632	giầu
-3.440783	giận
-3.440783	giật
-3.838723	giằng
-3.662632	giặc
-3.838723	giặt
-3.838723	giếm
-3.662632	giết
-3.838723	giềng
-3.440783	giọng
-3.838723	giọt
-3.662632	giỏi
-3.838723	giống
-3.185511	giới
-3.185511	giờ
-3.236663	giữ
-3.09836	giữa
-3.838723	goá
-3.662632	goép
-3.838723	guồng
-3.440783	gà
-3.361602	gái
-3.537693	gây
-3.838723	gã
-2.778025	gì
-3.838723	gìn
-3.662632	gò
-3.662632	gòn
-3.838723	góc
-3.838723	góp
-3.838723	gô
-3.662632	gù
-3.838723	gương
-3.662632	gạo
-3.838723	gảy
-3.537693	gấp
-3.537693	gần
-3.838723	gật
-3.838723	gậy
-3.662632	gắn
-3.537693	gắng
-3.09836	gặp
-3.139753	gọi
-3.537693	gốc
-3.361602	gồm
-3.838723	gỗ
-3.537693	gội
-3.838723	gục
-3.537693	gừng
-3.662632	gửi
-2.440783	hai
-3.838723	ham
-3.838723	hang
-2.993625	hay
-3.838723	heo
-3.662632	hi
-3.838723	hiến
-3.838723	hiếu
-3.662632	hiểm
-3.185511	hiểu
-2.621239	hiện
-3.537693	hiệp
-3.139753	hiệu
-3.662632	ho
-3.185511	hoa
-3.440783	hoà
-3.838723	hoài
-3.537693	hoàn
-3.662632	hoàng
-3.139753	hoá
-3.838723	hoạ
-3.537693	hoạch
-3.294655	hoạt
-3.662632	hoảng
-2.838723	hoặc
-3.838723	hung
-3.537693	huy
-3.662632	huyết
-3.440783	huyện
-3.440783	huế
-3.838723	huệ
-3.838723	huỳnh
-3.838723	huỷ
-3.838723	hy
-3.294655	hà
-3.662632	hàm
-3.838723	hàn
-2.884481	hàng
-2.838723	hành
-3.662632	hào
-3.838723	hái
-3.838723	hám
-3.838723	hán
-3.361602	hát
-3.838723	hãm
-3.02581	hãy
-2.621239	hình
-3.838723	hò
-3.838723	hòn
-3.838723	hói
-3.662632	hô
-3.537693	hôi
-3.236663	hôm
-3.838723	hôn
-3.838723	hông
-3.361602	hùng
-3.838723	húm
-3.838723	hút
-3.662632	hũ
-3.361602	hơi
-3.060572	hơn
-3.537693	hư
-3.838723	hương
-3.662632	hướng
-3.294655	hưởng
-3.838723	hượm
-3.440783	hại
-3.294655	hạn
-3.838723	hạng
-3.440783	hạnh
-3.236663	hạt
-3.662632	hả
-3.662632	hải
-3.838723	hảo
-3.236663	hấp
-3.838723	hất
-3.838723	hầu
-3.838723	hận
-3.838723	hậu
-3.838723	hắn
-3.838723	hắt
-3.838723	hằng
-3.537693	hẹp
-3.294655	hết
-3.838723	hề
-3.838723	hễ
-2.993625	hệ
-3.838723	hịch
-2.778025	họ
-2.838723	học
-3.838723	họng
-3.440783	họp
-2.909304	hỏi
-3.838723	hỏng
-3.838723	hố
-3.838723	hốc
-3.662632	hối
-3.838723	hốt
-3.09836	hồ
-3.361602	hồi
-3.838723	hồn
-3.236663	hồng
-3.537693	hổ
-3.838723	hỗ
-3.662632	hỗn
-3.236663	hộ
-2.677355	hội
-3.662632	hột
-3.838723	hở
-2.861	hợp
-3.838723	hứng
-3.294655	hữu
-3.537693	i
-3.537693	im
-3.838723	k
-3.537693	khai
-3.838723	khao
-2.467655	khi
-3.361602	khiến
-3.662632	khoa
-3.838723	khoai
-3.185511	khoảng
-3.294655	khoẻ
-3.537693	khu
-3.662632	khuya
-3.662632	khuyên
-3.294655	khuôn
-3.662632	khuất
-3.838723	khá
-2.909304	khác
-3.294655	khách
-3.838723	khái
-3.838723	khám
-3.838723	kháng
-3.838723	khánh
-3.662632	khâm
-3.838723	khè
-3.361602	khéo
-3.838723	khép
-3.537693	khí
-3.662632	khía
-3.838723	khích
-3.361602	khó
-3.537693	khóc
-3.537693	khô
-2.126916	không
-3.662632	khúc
-3.838723	khúm
-3.838723	khăn
-3.838723	khưu
-3.537693	khả
-3.838723	khản
-3.838723	khảo
-3.838723	khẩn
-3.537693	khẩu
-3.440783	khắc
-3.838723	khắp
-3.662632	khẽ
-3.838723	khịch
-3.838723	khọm
-3.537693	khỏi
-3.662632	khố
-3.361602	khối
-3.361602	khổ
-3.838723	khổng
-2.963662	khởi
-3.838723	khục
-3.838723	khứ
-3.662632	ki
-3.236663	kia
-3.662632	kim
-2.935633	kinh
-3.662632	kiên
-3.838723	kiêng
-3.537693	kiếm
-3.236663	kiến
-3.838723	kiết
-3.02581	kiểm
-3.838723	kiểu
-3.361602	kiện
-3.662632	kèm
-3.838723	kéo
-3.537693	kép
-3.838723	két
-3.662632	kê
-3.838723	kênh
-3.537693	kêu
-3.838723	kìa
-3.838723	kìm
-3.838723	kích
-3.662632	kín
-3.537693	kính
-3.838723	kít
-3.440783	ký
-3.838723	kĩ
-3.838723	kưn
-3.838723	kẹt
-3.662632	kẻ
-3.838723	kẽ
-3.838723	kẽo
-3.294655	kế
-3.060572	kết
-3.662632	kề
-3.294655	kể
-3.294655	kịp
-2.963662	kỳ
-3.838723	kỵ
-3.440783	kỷ
-3.537693	kỹ
-3.662632	la
-3.838723	lai
-3.838723	lam
-3.838723	lan
-3.662632	lang
-3.662632	lanh
-3.361602	lao
-3.838723	lau
-3.838723	len
-3.662632	lin
-3.662632	linh
-3.139753	liên
-3.662632	liền
-3.662632	liệt
-3.294655	liệu
-3.838723	lo
-3.838723	loe
-3.838723	long
-3.537693	loài
-3.236663	loại
-3.838723	loạn
-3.838723	luyên
-3.294655	luôn
-3.440783	luận
-3.060572	luật
-3.838723	luỹ
-3.838723	ly
-2.126916	là
-2.526969	làm
-3.838723	làn
-3.139753	làng
-3.537693	lành
-2.993625	lá
-3.662632	lác
-3.662632	lái
-3.838723	láng
-3.662632	lánh
-3.662632	lâm
-3.838723	lân
-3.440783	lâu
-3.440783	lãnh
-3.537693	lão
-3.537693	léo
-3.440783	lê
-2.759542	lên
-3.838723	lình
-3.838723	lí
-3.440783	lính
-3.838723	lò
-3.294655	lòng
-3.838723	ló
-3.838723	lót
-3.662632	lô
-3.662632	lôi
-3.838723	lông
-2.909304	lúc
-2.838723	lý
-3.537693	lăm
-3.838723	lăng
-3.838723	lũ
-3.838723	lư
-3.838723	lưng
-3.440783	lưu
-3.838723	lương
-3.662632	lưới
-3.838723	lưỡi
-3.537693	lược
-2.909304	lượng
-3.838723	lượt
-3.537693	lạ
-3.662632	lạc
-2.42375	lại
-3.361602	lạnh
-3.294655	lấy
-3.838723	lầm
-3.060572	lần
-3.838723	lầy
-3.662632	lẩn
-3.838723	lẫm
-3.838723	lẫy
-2.935633	lập
-3.838723	lật
-3.236663	lắm
-3.537693	lắng
-3.662632	lằn
-3.662632	lặng
-3.838723	lặt
-3.838723	lẹo
-3.662632	lẻ
-3.662632	lẽ
-3.838723	lề
-3.662632	lễ
-3.838723	lệ
-3.838723	lệch
-3.361602	lệnh
-3.838723	lị
-3.440783	lịch
-3.838723	lọ
-3.662632	lọc
-3.838723	lọm
-3.662632	lối
-3.537693	lốp
-3.838723	lồng
-3.440783	lỗi
-3.440783	lộ
-3.838723	lộc
-3.662632	lội
-2.993625	lớn
-3.662632	lớp
-3.838723	lờ
-3.02581	lời
-3.838723	lở
-3.537693	lỡ
-3.236663	lợi
-3.838723	lợt
-3.838723	lục
-3.838723	lụt
-3.838723	lừng
-3.662632	lửa
-3.294655	lựa
-2.797331	lực
-3.838723	lỵ
-3.294655	ma
-3.361602	mai
-3.09836	mang
-3.838723	mau
-3.838723	may
-3.838723	me
-3.838723	men
-3.537693	mi
-3.185511	minh
-3.838723	miên
-3.838723	miêu
-3.236663	miếng
-3.838723	miễn
-3.236663	miệng
-3.662632	mong
-3.294655	mua
-3.236663	muối
-3.361602	muốn
-3.838723	muộn
-2.506285	mà
-3.236663	màu
-3.440783	mày
-3.662632	má
-3.662632	mái
-3.838723	máng
-3.838723	máo
-3.838723	mát
-3.139753	máu
-3.185511	máy
-3.662632	mâu
-3.838723	mã
-3.440783	mãi
-3.537693	mãn
-3.838723	mèo
-3.838723	méc
-3.662632	mét
-3.662632	mê
-3.838723	mì
-2.634603	mình
-3.838723	mò
-3.838723	mòn
-3.662632	món
-3.662632	móng
-3.185511	mô
-3.185511	môi
-3.838723	môn
-3.838723	mông
-3.838723	mõm
-3.838723	mùa
-3.838723	mùi
-3.838723	măng
-3.838723	mĩ
-3.662632	mũi
-3.662632	mơ
-3.537693	mưa
-3.662632	mưu
-2.526969	mươi
-3.537693	mướp
-2.909304	mười
-3.838723	mượt
-3.662632	mạch
-3.537693	mạng
-2.993625	mạnh
-3.838723	mạo
-3.838723	mả
-3.838723	mảnh
-3.185511	mất
-3.139753	mấy
-3.838723	mầm
-3.838723	mầu
-3.537693	mẫu
-3.662632	mật
-3.838723	mậu
-3.662632	mắc
-3.838723	mắm
-3.838723	mắng
-2.993625	mắt
-3.294655	mặc
-2.861	mặt
-2.909304	mẹ
-3.838723	mẹc
-3.838723	mẹo
-3.838723	mẻ
-3.662632	mẽ
-3.838723	mến
-3.838723	mết
-3.838723	mếu
-3.537693	mềm
-3.838723	mỉa
-3.838723	mỉm
-3.838723	mị
-3.838723	mọ
-3.838723	mọc
-3.139753	mọi
-3.838723	mọt
-3.838723	mỏng
-3.440783	mối
-3.361602	mốt
-3.838723	mồ
-3.838723	mổ
-3.185511	mỗi
-3.537693	mộ
-2.009419	một
-3.838723	mớ
-3.02581	mới
-3.236663	mờ
-3.440783	mời
-3.662632	mở
-3.662632	mỡ
-3.838723	mụ
-3.361602	mục
-3.294655	mức
-3.838723	mực
-3.139753	mỹ
-3.838723	na
-3.139753	nam
-3.09836	nay
-3.838723	ne
-3.838723	ngang
-3.440783	ngay
-3.060572	nghe
-3.537693	nghi
-3.662632	nghiên
-3.838723	nghiền
-3.838723	nghiệm
-3.02581	nghiệp
-3.662632	nghèo
-3.838723	nghìn
-3.361602	nghĩ
-2.797331	nghĩa
-3.838723	nghẹo
-3.838723	nghếch
-3.440783	nghề
-3.236663	nghệ
-3.294655	nghị
-3.838723	nghịch
-3.838723	nghịu
-3.838723	ngoan
-3.838723	ngoe
-3.838723	ngon
-3.060572	ngoài
-3.440783	ngoại
-3.838723	ngu
-3.662632	nguy
-3.361602	nguyên
-3.838723	nguyền
-3.139753	nguyễn
-3.838723	nguyện
-3.294655	nguồn
-2.741813	ngàn
-3.294655	ngành
-2.993625	ngày
-3.838723	ngán
-3.662632	ngâm
-3.662632	ngân
-3.838723	ngãi
-3.838723	ngòi
-3.662632	ngôn
-3.838723	ngũ
-3.838723	ngư
-2.264692	người
-3.838723	ngượng
-3.662632	ngạc
-3.662632	ngại
-3.662632	ngầm
-3.838723	ngẩng
-3.838723	ngắm
-3.537693	ngắn
-3.662632	ngọ
-3.361602	ngọc
-3.537693	ngọt
-3.662632	ngốc
-3.185511	ngồi
-3.838723	ngộ
-3.838723	ngột
-3.838723	ngờ
-3.838723	ngợm
-3.838723	ngụ
-3.361602	ngủ
-3.838723	ngừa
-3.838723	ngừng
-3.838723	ngửa
-3.838723	ngửi
-3.662632	ngữ
-3.838723	ngựa
-3.838723	ngực
-3.838723	nha
-3.440783	nhanh
-3.02581	nhau
-3.838723	nheo
-3.09836	nhiên
-3.838723	nhiêu
-2.817534	nhiều
-3.838723	nhiểu
-3.537693	nhiễm
-3.139753	nhiệm
-3.662632	nhiệt
-3.440783	nho
-3.361602	nhu
-3.838723	nhung
-3.662632	nhuyễn
-2.526969	nhà
-3.662632	nhàn
-3.662632	nhàng
-3.838723	nhào
-3.838723	nhánh
-2.759542	nhân
-3.662632	nhã
-3.662632	nhãn
-3.537693	nhé
-2.993625	nhìn
-3.838723	nhí
-3.838723	nhíu
-3.361602	nhóm
-3.838723	nhóng
-3.838723	nhõm
-3.662632	nhăn
-2.4963	như
-2.677355	nhưng
-3.838723	nhược
-3.662632	nhạc
-3.662632	nhạt
-3.838723	nhạy
-3.838723	nhảm
-3.662632	nhảy
-2.817534	nhất
-3.838723	nhẫn
-2.884481	nhận
-3.294655	nhập
-3.838723	nhật
-3.838723	nhắm
-3.537693	nhằm
-3.838723	nhẵn
-3.440783	nhẹ
-3.838723	nhẻm
-3.838723	nhếch
-3.838723	nhịp
-2.935633	nhỏ
-3.838723	nhồi
-3.09836	nhớ
-3.537693	nhờ
-3.838723	nhức
-2.383878	những
-3.838723	nin
-3.361602	ninh
-3.838723	niêm
-3.361602	niên
-3.662632	niềm
-3.838723	niểng
-3.294655	niệm
-3.838723	no
-3.662632	non
-3.838723	nuôi
-3.662632	nuốt
-3.838723	nàng
-2.884481	nào
-2.537693	này
-3.662632	nám
-3.838723	nát
-3.838723	náy
-3.838723	nâng
-3.838723	nãy
-3.838723	nè
-3.537693	nêm
-2.861	nên
-3.537693	nêu
-3.838723	nín
-3.838723	nòng
-2.817534	nó
-2.516504	nói
-3.662632	nóng
-3.440783	nông
-3.838723	núm
-2.621239	năm
-3.09836	năng
-3.185511	nơi
-3.662632	nương
-2.692595	nước
-3.838723	nướng
-3.662632	nạc
-3.838723	nạp
-3.838723	nản
-3.838723	nảy
-3.838723	nấc
-3.838723	nấm
-3.838723	nấp
-3.838723	nẩy
-3.537693	nắm
-3.662632	nắng
-3.236663	nằm
-3.662632	nẵng
-3.662632	nặng
-3.838723	nếm
-2.909304	nếu
-3.662632	nền
-3.838723	nỉ
-3.838723	nọ
-3.838723	nọc
-3.838723	nỏ
-3.662632	nối
-3.838723	nồng
-3.440783	nổ
-3.361602	nổi
-3.662632	nỗ
-3.361602	nỗi
-3.838723	nộ
-3.294655	nội
-3.838723	nờ
-3.838723	nở
-3.662632	nợ
-3.662632	nửa
-3.236663	nữ
-3.294655	nữa
-3.440783	o
-3.838723	oai
-3.537693	ong
-3.662632	oà
-3.838723	oàng
-3.662632	oán
-3.662632	oánh
-3.838723	oắt
-3.838723	oặt
-3.537693	pa
-3.662632	ph
-3.537693	pha
-3.838723	phai
-3.838723	phe
-3.537693	phi
-3.838723	phiên
-3.294655	phong
-3.662632	phu
-3.662632	phá
-3.838723	phái
-3.838723	phán
-2.621239	pháp
-2.838723	phát
-3.236663	phân
-3.662632	phép
-3.662632	phê
-3.662632	phí
-3.440783	phía
-3.09836	phòng
-3.440783	phó
-3.838723	phóc
-3.838723	phóng
-3.838723	phù
-3.361602	phú
-3.838723	phúc
-3.662632	phút
-3.838723	phơi
-2.935633	phương
-3.139753	phạm
-3.537693	phạt
-2.621239	phải
-3.09836	phần
-3.361602	phẩm
-3.537693	phẩy
-3.838723	phẫn
-3.838723	phận
-3.537693	phật
-3.838723	phẳng
-3.838723	phịch
-3.838723	phịu
-3.662632	phỏng
-3.294655	phố
-3.537693	phối
-3.662632	phổi
-3.139753	phụ
-3.02581	phục
-3.838723	phụng
-3.236663	phủ
-3.662632	phức
-3.662632	phừng
-3.838723	pu
-3.838723	pua
-3.838723	pí
-2.963662	qua
-2.70839	quan
-3.361602	quang
-3.838723	quanh
-3.838723	quay
-3.361602	quen
-3.361602	quy
-3.09836	quyết
-2.838723	quyền
-3.838723	quà
-3.02581	quá
-3.838723	quán
-3.838723	quát
-3.02581	quân
-3.662632	quét
-3.440783	quê
-3.838723	quên
-3.662632	quý
-3.838723	quăng
-3.662632	quạch
-3.838723	quại
-2.909304	quả
-3.09836	quản
-3.537693	quảng
-3.537693	quần
-3.662632	quận
-3.838723	quật
-3.838723	quằn
-3.838723	quế
-2.861	quốc
-2.368901	ra
-3.662632	rao
-3.440783	rau
-3.838723	rem
-3.838723	ren
-3.838723	reo
-3.838723	ri
-3.537693	riêng
-3.838723	run
-3.838723	ruộng
-3.537693	ruột
-3.537693	ràng
-3.838723	rác
-3.838723	rách
-3.537693	ráng
-3.537693	râu
-3.838723	rãi
-3.838723	rãnh
-3.838723	réo
-3.537693	rít
-3.838723	ríu
-3.838723	rò
-3.838723	rô
-3.236663	rõ
-3.838723	rùa
-3.838723	rú
-3.838723	rút
-3.838723	răm
-3.838723	răng
-3.838723	rơ
-3.838723	rưỡi
-3.139753	rượu
-2.861	rất
-3.662632	rậm
-3.838723	rắc
-3.838723	rắt
-2.963662	rằng
-3.838723	rẻ
-3.662632	rễ
-3.838723	rệt
-3.838723	rịa
-3.838723	rọi
-3.537693	rối
-2.548689	rồi
-3.662632	rộn
-3.838723	rộng
-3.838723	rời
-3.838723	rỡ
-3.838723	rợn
-3.838723	rợp
-3.838723	rụng
-3.838723	rủa
-3.662632	rừng
-3.537693	rửa
-3.838723	rực
-3.838723	sa
-3.838723	sai
-3.361602	sang
-3.294655	sao
-2.741813	sau
-3.294655	say
-3.838723	sen
-3.09836	sinh
-3.185511	so
-3.838723	soi
-3.838723	soài
-3.537693	soạt
-3.838723	su
-3.838723	sung
-3.361602	suy
-3.838723	suýt
-3.440783	suối
-3.537693	suốt
-3.662632	sài
-3.662632	sàn
-3.294655	sách
-2.963662	sáng
-3.537693	sánh
-3.02581	sát
-2.935633	sáu
-3.537693	sâu
-3.838723	sòng
-3.662632	sóng
-3.838723	sót
-3.838723	sôi
-3.537693	sông
-3.838723	sõng
-3.838723	sút
-3.09836	sĩ
-3.294655	sơ
-3.662632	sơn
-3.294655	sư
-3.662632	sưa
-3.662632	sương
-3.537693	sướng
-3.838723	sườn
-3.361602	sạch
-3.838723	sạn
-3.09836	sản
-3.838723	sảng
-3.838723	sầm
-3.838723	sầu
-3.838723	sậm
-3.838723	sập
-3.537693	sắc
-3.838723	sắng
-3.838723	sắp
-2.817534	sẽ
-3.838723	sệt
-2.817534	số
-2.817534	sống
-3.662632	sốt
-3.537693	sột
-3.838723	sớm
-3.236663	sở
-3.361602	sợ
-3.838723	sợi
-3.838723	sụp
-3.838723	sụt
-3.361602	sứ
-3.662632	sứa
-2.963662	sức
-3.361602	sử
-3.537693	sữa
-2.486541	sự
-3.838723	t
-2.759542	ta
-3.361602	tam
-3.537693	tan
-3.838723	tang
-3.537693	tanh
-3.662632	tao
-3.185511	tay
-3.838723	tha
-3.838723	thai
-3.236663	tham
-3.662632	thang
-3.139753	thanh
-3.838723	thao
-3.440783	thay
-2.634603	theo
-3.139753	thi
-3.440783	thiên
-3.838723	thiêu
-3.662632	thiết
-3.537693	thiếu
-3.838723	thiểu
-3.236663	thiện
-3.838723	thiệp
-3.440783	thiệt
-3.838723	tho
-3.838723	thoáng
-3.838723	thoát
-3.440783	thoại
-3.440783	thoả
-3.060572	thu
-3.294655	thuyết
-3.838723	thuần
-3.838723	thuẫn
-3.662632	thuận
-3.361602	thuật
-3.294655	thuế
-3.361602	thuốc
-3.236663	thuộc
-3.838723	thuỳ
-3.440783	thuỷ
-3.838723	thy
-2.70839	thành
-3.662632	thác
-3.838723	thách
-3.294655	thái
-3.060572	tháng
-3.361602	thánh
-3.838723	tháp
-2.909304	thân
-3.838723	thèm
-3.838723	thép
-3.838723	thê
-3.440783	thêm
-3.838723	thêu
-2.516504	thì
-3.662632	thìa
-3.838723	thình
-3.838723	thí
-2.935633	thích
-3.838723	thín
-3.236663	thôi
-3.662632	thôn
-2.993625	thông
-3.838723	thõng
-3.440783	thù
-3.537693	thúc
-3.838723	thăm
-3.838723	thăng
-3.838723	thơ
-3.440783	thơm
-3.440783	thư
-3.662632	thưa
-3.09836	thương
-2.909304	thường
-3.838723	thưởng
-3.838723	thượng
-3.537693	thạch
-3.838723	thả
-3.662632	thấp
-3.294655	thất
-2.884481	thấy
-3.361602	thần
-3.09836	thầy
-3.662632	thẩm
-3.838723	thậm
-3.838723	thập
-3.537693	thật
-3.838723	thắc
-3.838723	thắm
-3.294655	thắng
-3.185511	thằng
-3.838723	thẳm
-3.440783	thẳng
-3.838723	thẽ
-2.648391	thế
-2.634603	thể
-3.02581	thị
-3.361602	thịt
-3.838723	thọc
-3.838723	thọt
-3.537693	thỏ
-3.060572	thống
-3.838723	thốt
-3.838723	thổi
-3.662632	thờ
-2.861	thời
-3.361602	thở
-3.838723	thợ
-3.662632	thụ
-3.537693	thục
-3.236663	thủ
-3.838723	thủng
-2.861	thứ
-2.70839	thức
-3.838723	thừ
-3.440783	thừa
-3.662632	thử
-2.692595	thực
-3.662632	ti
-3.838723	tim
-3.236663	tin
-3.294655	tinh
-3.294655	tiên
-2.909304	tiêu
-3.838723	tiếc
-3.185511	tiến
-2.935633	tiếng
-2.963662	tiếp
-3.662632	tiết
-3.838723	tiềm
-3.139753	tiền
-3.440783	tiểu
-3.662632	tiễn
-3.838723	tiệc
-3.537693	tiện
-3.361602	to
-3.838723	toà
-3.09836	toàn
-3.185511	toán
-3.236663	tra
-3.537693	trai
-3.838723	tran
-3.294655	trang
-3.02581	tranh
-3.440783	treo
-3.537693	tri
-3.537693	trinh
-3.838723	triều
-3.139753	triển
-3.662632	triệu
-2.282421	trong
-2.72478	trung
-3.838723	truy
-3.294655	truyền
-3.662632	trà
-3.838723	tràn
-3.662632	trào
-3.294655	trách
-3.662632	tránh
-3.662632	trân
-3.838723	trãi
-2.548689	trên
-3.662632	trì
-3.294655	trình
-3.185511	trí
-3.361602	trò
-3.838723	tròn
-3.838723	trôi
-3.838723	trông
-3.838723	trùn
-3.838723	trùng
-3.838723	trúc
-3.838723	trúng
-3.662632	trút
-2.548689	trăm
-3.838723	trăn
-3.838723	trưa
-3.838723	trưng
-3.537693	trương
-2.884481	trước
-2.817534	trường
-3.09836	trưởng
-3.838723	trại
-3.838723	trạm
-3.662632	trạng
-3.294655	trả
-3.662632	trải
-3.838723	trảng
-3.662632	trấn
-3.294655	trần
-3.838723	trầy
-3.662632	trận
-3.537693	trật
-3.662632	trắc
-3.361602	trắng
-2.963662	trẻ
-3.838723	trệ
-2.884481	trị
-3.838723	trịnh
-3.838723	trọ
-2.963662	trọng
-3.662632	trốn
-3.662632	trộm
-3.537693	trộn
-3.09836	trời
-3.02581	trở
-3.361602	trợ
-3.537693	trụ
-3.662632	trứng
-3.662632	trừ
-3.838723	trừng
-3.838723	trừu
-3.662632	trữ
-3.662632	trực
-3.838723	tui
-3.838723	tung
-3.294655	tuy
-3.838723	tuyên
-3.537693	tuyến
-3.838723	tuyền
-3.838723	tuyển
-3.662632	tuyệt
-3.838723	tuần
-3.537693	tuệ
-3.185511	tuổi
-3.662632	tuỳ
-3.662632	ty
-2.838723	tài
-3.838723	tàn
-3.838723	tàng
-3.361602	tàu
-3.838723	tá
-3.060572	tác
-3.838723	tách
-3.236663	tám
-3.838723	tán
-3.838723	táng
-3.537693	táo
-3.838723	táy
-3.02581	tâm
-3.440783	tân
-3.361602	tây
-3.838723	tê
-3.139753	tên
-3.838723	tì
-3.060572	tìm
-2.963662	tình
-3.662632	tí
-3.294655	tích
-3.537693	tím
-3.361602	tín
-3.060572	tính
-3.838723	tít
-3.838723	tíu
-3.838723	tòng
-3.294655	tóc
-3.662632	tóm
-3.440783	tô
-2.486541	tôi
-3.838723	tôm
-3.662632	tôn
-3.537693	tù
-3.440783	tú
-3.838723	túi
-3.838723	túm
-3.361602	tăng
-3.662632	tĩnh
-3.838723	tơi
-2.993625	tư
-3.662632	tươi
-3.09836	tương
-3.838723	tước
-3.139753	tưởng
-3.440783	tượng
-3.662632	tạ
-3.838723	tạc
-2.909304	tại
-3.838723	tạm
-3.060572	tạo
-3.838723	tạp
-3.294655	tả
-3.838723	tải
-3.838723	tản
-3.662632	tảng
-3.838723	tấm
-3.361602	tấn
-3.440783	tất
-3.537693	tầm
-3.440783	tầng
-3.838723	tẩu
-3.662632	tận
-3.236663	tập
-3.537693	tắc
-3.838723	tẹo
-2.884481	tế
-3.838723	tết
-3.440783	tệ
-3.838723	tỉa
-3.236663	tỉnh
-3.185511	tịch
-3.537693	tọc
-3.838723	tỏ
-3.838723	tỏi
-3.139753	tố
-3.838723	tốc
-3.09836	tối
-3.838723	tốn
-3.185511	tốt
-3.662632	tồi
-3.838723	tồn
-2.963662	tổ
-3.662632	tổn
-3.294655	tổng
-3.361602	tộc
-3.236663	tội
-3.185511	tớ
-2.884481	tới
-3.440783	tờ
-3.838723	tời
-3.294655	tục
-3.838723	tụi
-3.838723	tủ
-3.838723	tứ
-3.440783	tức
-2.55997	từ
-3.02581	từng
-3.236663	tử
-3.662632	tửu
-2.884481	tự
-3.838723	tựt
-3.662632	tựu
-3.361602	u
-3.838723	um
-3.537693	ung
-3.537693	uy
-3.838723	uý
-3.838723	uýnh
-3.440783	uất
-3.838723	uốn
-3.060572	uống
-3.662632	uổng
-2.817534	uỷ
-3.838723	v
-3.838723	vai
-3.662632	vang
-3.838723	veo
-3.361602	vi
-3.662632	vinh
-3.838723	viêm
-2.861	viên
-3.294655	viết
-3.662632	viễn
-2.583451	việc
-3.02581	viện
-3.361602	việt
-3.838723	vong
-3.294655	vua
-3.838723	vui
-3.662632	vung
-2.126916	và
-3.537693	vài
-3.236663	vàng
-2.648391	vào
-3.838723	váy
-3.838723	vân
-3.838723	vâng
-3.838723	vây
-3.838723	vãnh
-3.440783	vê
-2.838723	vì
-3.838723	vòi
-3.662632	vòng
-3.185511	vô
-3.662632	võ
-3.838723	võng
-3.662632	vùng
-3.838723	vú
-3.361602	văn
-3.838723	vĩnh
-3.361602	vũ
-3.838723	vũng
-3.838723	vơ
-3.838723	vơi
-3.662632	vương
-3.838723	vượt
-3.838723	vạm
-3.838723	vải
-3.185511	vấn
-3.838723	vầng
-2.935633	vẫn
-3.537693	vận
-3.294655	vật
-2.70839	vậy
-3.838723	vặn
-3.838723	vặt
-3.537693	vẻ
-3.662632	vẽ
-2.361602	về
-3.361602	vệ
-2.935633	vị
-3.440783	vọng
-3.662632	vọt
-3.537693	vỏ
-3.361602	vốn
-3.838723	vội
-2.25894	với
-3.838723	vời
-3.662632	vỡ
-3.139753	vợ
-2.838723	vụ
-3.09836	vừa
-3.537693	vững
-3.537693	vực
-3.02581	x
-3.139753	xa
-3.361602	xanh
-3.02581	xe
-3.537693	xem
-3.662632	xi
-3.361602	xin
-3.838723	xiên
-3.838723	xoa
-3.662632	xong
-3.838723	xoè
-3.662632	xoẹt
-3.662632	xu
-3.537693	xung
-3.440783	xuyên
-3.361602	xuân
-3.294655	xuất
-3.236663	xuống
-3.838723	xà
-3.838723	xàm
-3.662632	xào
-3.537693	xá
-3.440783	xác
-3.838723	xâm
-3.537693	xây
-3.02581	xã
-3.440783	xét
-3.537693	xê
-3.838723	xì
-3.838723	xía
-3.537693	xóm
-3.440783	xô
-3.838723	xúc
-3.838723	xăm
-3.838723	xăng
-3.838723	xơ
-3.662632	xưa
-3.838723	xưng
-3.662632	xương
-3.838723	xước
-3.838723	xướng
-3.537693	xảy
-3.537693	xấu
-3.537693	xế
-3.838723	xếp
-3.838723	xứ
-3.838723	xứng
-3.440783	xử
-3.294655	y
-2.993625	yên
-2.884481	yêu
-3.838723	yết
-2.909304	yếu
-3.838723	yểm
-2.797331	à
-3.537693	ào
-3.662632	á
-3.662632	ác
-3.537693	ách
-3.662632	ái
-2.993625	án
-3.139753	ánh
-3.09836	áo
-3.02581	áp
-3.838723	áy
-3.361602	âm
-3.662632	ân
-3.294655	âu
-3.662632	ém
-3.440783	ép
-3.838723	ét
-3.537693	ê
-3.440783	êm
-3.662632	ì
-3.838723	ích
-2.909304	ít
-3.838723	ò
-3.838723	ó
-3.361602	óc
-3.838723	ói
-3.662632	óng
-3.537693	ô
-3.440783	ôm
-2.320209	ông
-3.838723	ù
-3.838723	ùm
-3.662632	ùn
-3.838723	ùng
-3.662632	úi
-3.537693	úng
-3.537693	úp
-3.662632	út
-2.692595	ý
-2.861	ăn
-3.662632	đa
-3.838723	đai
-2.817534	đang
-3.361602	đau
-3.361602	đem
-3.361602	đen
-3.838723	đeo
-2.662632	đi
-3.838723	điền
-2.72478	điều
-2.861	điểm
-3.294655	điện
-3.838723	điệu
-3.838723	đoan
-3.236663	đoàn
-3.838723	đoá
-3.537693	đoạn
-3.838723	đoạt
-3.838723	đuôi
-3.662632	đà
-3.838723	đài
-3.060572	đàn
-3.294655	đào
-3.838723	đày
-3.361602	đá
-3.838723	đác
-3.537693	đám
-3.838723	đáng
-3.09836	đánh
-3.440783	đáp
-3.662632	đâm
-3.060572	đâu
-3.02581	đây
-2.440783	đã
-3.838723	đãi
-3.838723	đèn
-3.838723	đéc
-3.361602	đêm
-3.361602	đình
-3.662632	đích
-3.838723	đòi
-2.662632	đó
-3.838723	đói
-3.838723	đón
-3.662632	đóng
-3.236663	đô
-3.185511	đôi
-3.537693	đông
-3.662632	đùa
-3.185511	đúng
-3.662632	đăng
-3.838723	đĩ
-3.838723	đĩa
-3.838723	đũa
-3.537693	đơn
-2.935633	đưa
-3.361602	đương
-2.797331	đường
-2.264692	được
-2.963662	đại
-3.236663	đạo
-3.838723	đạp
-3.361602	đạt
-3.236663	đảm
-3.440783	đảng
-3.838723	đảnh
-3.294655	đất
-3.537693	đấu
-3.440783	đấy
-2.797331	đầu
-3.440783	đầy
-3.838723	đẩy
-3.838723	đậm
-3.838723	đập
-3.662632	đậy
-3.838723	đắc
-3.662632	đắng
-3.838723	đắp
-3.537693	đằng
-3.185511	đặc
-3.537693	đặt
-3.838723	đẹn
-3.662632	đẹp
-3.662632	đẻ
-3.440783	đế
-2.458512	đến
-2.993625	đề
-3.838723	đềm
-3.838723	đền
-3.236663	đều
-2.415477	để
-3.838723	đệ
-3.02581	địa
-3.537693	địch
-2.759542	định
-3.361602	đọc
-3.537693	đỏ
-3.662632	đốc
-2.72478	đối
-3.838723	đốt
-3.361602	đồ
-3.838723	đồi
-3.537693	đồn
-2.861	đồng
-3.838723	đổ
-3.537693	đổi
-3.838723	đổng
-2.935633	độ
-3.361602	độc
-2.963662	đội
-3.662632	độn
-3.02581	động
-3.440783	đột
-3.838723	đới
-3.838723	đớn
-3.838723	đớt
-3.236663	đời
-3.838723	đờm
-3.838723	đợi
-3.361602	đủ
-3.662632	đứa
-3.440783	đức
-3.537693	đứng
-3.537693	đừng
-3.662632	ơ
-2.692595	ơi
-3.662632	ơn
-3.361602	ư
-3.838723	ưng
-3.294655	ưu
-3.838723	ươm
-3.236663	ương
-3.294655	ước
-3.662632	ướp
-3.838723	ướt
-2.884481	ạ
-3.838723	ạch
-3.838723	ải
-3.294655	ảnh
-3.236663	ảo
-3.838723	ấm
-3.361602	ấn
-3.294655	ấp
-2.909304	ấy
-3.662632	ầm
-3.440783	ẩm
-3.537693	ẩn
-3.838723	ẩu
-3.838723	ập
-3.537693	ắt
-3.537693	ếch
-3.838723	ễnh
-3.838723	ỉ
-3.662632	ỉa
-3.361602	ốc
-3.662632	ốm
-2.909304	ống
-3.662632	ốp
-3.662632	ồm
-3.662632	ồn
-3.662632	ổi
-3.440783	ổn
-3.838723	ổng
-3.537693	ớ
-3.361602	ớt
-3.662632	ờ
-2.16203	ở
-3.838723	ủ
-3.838723	ủa
-3.662632	ủi
-3.838723	ủn
-3.838723	ủng
-3.537693	ức
-2.935633	ứng
-3.537693	ừ
-3.838723	ừm
-3.838723	ực
-3.838723	ỷ

\end\
